[ -6201188   -277383   7419386   5724220  -2832254  -4659009  -3150024
  -1092622  -3252002   4013694    -93163  -2340889    164006   1332822
   6037930   -852298   2700862   1868299   4129904  -2306070  -2211684
   3293764   -899806  -3233458  -6217684  -1656870  -2636956  -4786912
   2987491  -1906968   1788314  -1578636    274617  -4938241  -1051842
   3687421    352738   1001066  -2800839   7558112   6255756   2561236
  -6038802   2292089    277750   8184200   5308880   1737158  -4677362
  -2727563    738354  -2679770   -580620  -5466920  -2417348   1324365
   6599486   4679002   -848838    303085  -2762461  -3435098   1297132
   -417465   4412204  -2640398   2821922  -1309736   1531042   2644562
  -3400095   3588999   -310438   7854745   6076154  -2547152  -2070383
   1999840  -2563628    535130   5978419   1376572  -1065788   4326496
  -2304563   5957952   2385206   2343602   2277544  -4498096  -5647584
   -467913  -4010507  -2854367   2307534   2631986  -4878520  -3865460
  -1432715   2853232    -78767   6936207   4048049  -3097668   5646966
   5368366  -2072891  -3049958 -11397696  -5807980    937554  -3922569
  -1827379  -1907881   3479261   6933676  -5386050   2116887   5316613
   1862130    -23805  -1492297  -4011898   1550175   2363277  -5008915
   -110330  -2751483   1041286   2278613  -5262203  -5472962   1890862
  -1267570   2553103  -3495350   2121794   2925235   2977070    976233
   3389625   3580016   8583830   1214588  -4957317   6698493   4592489
  -2293923   4437554   -846636  -2206643   3231948   -717734  -3867782
    559891   2716320  -3835389   -708714  -1686600   3061274   1231678
  -4493986  -3530172  -1395448  -5569025  -2662788   4994628  -4174837
  -2466410  -3967494  -3468666   1984763   2880217  -1737594   -253854
  -1853482  -1666197   -394954   1635376    748404     11288   4466662
  -8553275    342256   4696437   -794820  -4617992  -3286638  -2740388
   -571513   7355393   4337066  -6679302  -8434038   1292521   -361473
    174541   2156837   3450501  -3264020   1567923  -1456745   2327567
  -8240464  -9601220  -4627952   -226347  -4904600  -3731175   5255274
   6828648  -1171665    325918  -2368334    595550   8279066    422136
  -1902138  -2300043   2822497   5214424  -3490899    346838   6029490
   1566271  -6509768  -4342649   -921877   4192218  -7303702  -3389544
    857667  -1287726 -11122771  -4491520  -1655150    500354  -1270072
  -2008226  -4088195   2706622  -1430645   2597002   2747788   -481200
  -4415390    140531    785531    671319  -1695911    157400    339104
   8389109   1354744  -8123214    331501]
