[ -2953742   -453146  -3831485   2138837  -1546338  -8066364  -2630433
  -2320138  -6272580  -2715388  -6891561  -1857991   1607775    686968
    233080   2865508   2686761  -6757732   6414990  -5292208   3605919
   3516058  -6689393   2773609   -376954   7634354  -1295785   7135346
   -132322   2286585   1108724  -5123668   1304112  -2146200  -7230302
   1240032   2254237  -2510604    951921   1341308   2682980  -7487144
   -415449   3049004   4234746   4726864  -1534524  -2832344  -1195939
  12792515  -3744472   1279277  -2624519  -2481389   3298208  -4837242
  -3057240    -86254   3408267   -251330  -1635760   1555343   1165350
   1417984   4493001   6254681   6052164   -680365   -865717   1714944
  -4292818  11381739  -3724920   2050159  -5909959  -2486939    378021
   1076268     41134    -91005   6274030   -229830   1811864  -5744253
    814090   -989537   3905552   7645217   3320316   1431376  -4657476
   -725203  -1040752  -3350858   3010285   -130119   -137137   5683581
   4832584  -1679830   1212918   2191475   -850638   6896698   5247992
   9588449    713188  -2159827  -6141246  -1736681   1062907  -1715941
   -440180   4609244  -2149008   5634388   3004838  -9813467     84118
  -4522108  -2739891   2884749   3430086    288032 -11918463  -3945131
   2997368  -4178000]
